{
  "classes": [
    "Gryffindor",
    "Hufflepuff",
    "Ravenclaw",
    "Slytherin"
  ],
  "feature_names": [
    "Arithmancy",
    "Astronomy",
    "Herbology",
    "Defense Against the Dark Arts",
    "Divination",
    "Muggle Studies",
    "Ancient Runes",
    "History of Magic",
    "Transfiguration",
    "Potions",
    "Care of Magical Creatures",
    "Charms",
    "Flying"
  ],
  "scaler_params": {
    "mean": [
      49634.57024265645,
      39.79713089016475,
      1.1410195296768044,
      -0.3878634974417863,
      3.153909673286355,
      -224.58991486346417,
      495.74797005915786,
      2.963094615116594,
      1030.0969463871304,
      5.95037299278009,
      -0.0534271367004963,
      -243.3744090125,
      21.9580125
    ],
    "std": [
      16496.36189978288,
      514.904736429893,
      5.163925073157659,
      5.16040249138473,
      4.103030881423507,
      480.8423325139229,
      105.08265387187238,
      4.364496027131785,
      43.63982882393576,
      3.117210254470139,
      0.9589293997677882,
      8.780894559533115,
      97.60108742375692
    ]
  },
  "classifiers": {
    "Gryffindor": {
      "weights": [
        -0.35107915027181547,
        0.15615565265662285,
        -0.9562023740870655,
        -0.14669678394369126,
        0.4510323133100331,
        -0.07239953150950773,
        0.8307913873663868,
        -0.7507652193007384,
        -0.9596275434720428,
        -0.1584597531575722,
        0.004686154889584207,
        -0.3380594529211993,
        0.8384460355250424
      ],
      "bias": -2.69386935362012,
      "final_cost": 0.04763913460718088
    },
    "Hufflepuff": {
      "weights": [
        0.1637706051532817,
        1.2600527406607442,
        1.2702673456265121,
        -1.2904265810645523,
        0.5736648273998217,
        -0.8088849234015354,
        -1.3402982491997981,
        0.7588279903800933,
        0.6759311542768002,
        -0.34750397775135156,
        -0.01969785507556808,
        -0.08099896118191373,
        -0.5079536769398988
      ],
      "bias": -1.7942934912980313,
      "final_cost": 0.060404831670862365
    },
    "Ravenclaw": {
      "weights": [
        0.2217691506460156,
        -0.7150257877522005,
        0.5376163119709325,
        0.7161902663319438,
        0.3398103446474985,
        1.172389328925635,
        0.9739316726125005,
        0.059931204907725834,
        0.025424205465983098,
        -0.010041373679718852,
        0.04584156012813653,
        1.0246082139222588,
        0.06843632104634616
      ],
      "bias": -2.1740140884163774,
      "final_cost": 0.06961094781984606
    },
    "Slytherin": {
      "weights": [
        -0.011697378113123528,
        -0.6853587874126826,
        -0.8037689796325257,
        0.6956162920644265,
        -1.4478772005995921,
        -0.3454303350271892,
        -0.5939038337544925,
        -0.010774388517370732,
        0.32740226534564915,
        0.5435154748096466,
        -0.05976149069165615,
        -0.6558627416004897,
        -0.4851060948437032
      ],
      "bias": -2.9407240306976763,
      "final_cost": 0.05019070748821603
    }
  }
}